-0.67160827945766,0.514186443328348,-1.29517577529734,-0.862555939759101,-2.47572143731386,0.66661234972522,-0.197502768802906,0.222580079456826,0.154490211221105,0.384841537236963,-0.0070805164269845,-0.405302526800126,0.0421293382654952,0.822398766364754,-0.696087889314253,0.209781698429308,0.265931386115327,-0.205667113293048,-0.102315669905095,0.332502785613739,-0.0964272439538978,-0.701035255994158,0.00382984948268999,-0.856323852508092,1.18058503871731,-0.764784809042964,0.752755253362021,-0.784102561668751,-0.436636518173413,-0.00624441128773426,0.672273794214936,-0.0849945152210475,0.514827310601326,0.136091386167971,0.129644525585219,-0.213308101773785,-0.469713866587688,-0.429958687358373,-0.618586419492511,-0.0597820971262423,-0.261056612989984,-0.826210591642455,0.478832082942455,-0.24457249585167,-0.259731632718832,-0.458488148912445,-1.07036598889843,0.963940468998193,-0.561786871008763,0.649286695296656,0.151093365875848,-0.477603304450517,-0.073358283846882,-0.012253473384118,0.167131311669446,0.26643684208626,0.0747560284667196,-0.222959705256772,-0.381722460785259,-0.353578426654756,0.821498108862979,0.926408485988349,-1.24097733806805,-0.168908880611433,-0.846157461538116,0.389175548619024,0.637336924604204,0.126819655009512,0.801631674803718,-0.493396216100983,
